\data\
ngram 1=6
ngram 2=11

\1-grams:
0	<s>	-0.20524946
-0.6339074	</s>	0
-0.5806619	bir	-0.6154239
-0.8495071	iki	0
-0.8495072	üç	-0.19629465
-0.8495072	on	-0.19629465

\2-grams:
-0.15946458	bir </s>
-0.6339074	iki </s>
-0.29117268	üç </s>
-0.57016027	on </s>
-0.3600731	<s> bir
-0.5400982	on bir
-0.85355467	<s> iki
-0.8082854	bir iki
-0.6753	on iki
-0.85355467	<s> üç
-1.0547566	<s> on

\end\
